2.98066 1.89164 0.661232 -14.5776 0.801449 -3.70988 -3.62015 15.3324 -21.2484 -6.18479 3.15034 6.77526 -2.18468 7.25811 1.0528 0.853627 -2.87254 -2.92405 -1.33714 -2.80551 
-6.75205 -4.82345 -5.25196 8.59876 -92.041 7.77899 7.81206 -6.48166 7.09471 14.2966 -5.23668 -6.25673 4.53445 -4.48875 -7.82937 -13.6889 5.98383 5.93467 4.59306 4.90074 
-0.465473 -1.5461 -2.20995 -6.08341 -4.29186 -0.942283 0.621635 
-1.11914 -0.224339 0.00795679 3.91973 -0.0519679 -3.24549 -3.59194 -1.27019 3.80618 4.64638 -0.461097 1.34765 0.249726 0.40754 -1.91702 -1.98585 -3.08769 -6.17244 0.464696 4.89635 -1.53704 -0.020233 0.271352 -2.44444 0.124458 -3.48289 2.57045 0.908144 1.03125 -0.0714747 -4.4098 -0.319844 0.391147 -0.688449 2.24361 4.23035 0.139842 -2.66256 2.89416 -1.95113 -1.65887 -0.276646 -0.299921 0.844006 -0.379663 1.64684 5.46653 1.17759 -9.70617 -5.25177 0.785278 -5.82681 -1.88154 -2.29789 -1.96666 3.20309 1.12297 -0.799782 -3.2612 -0.691812 5.30379 -6.27969 0.188572 5.2476 -0.399039 3.82068 1.75791 -7.35571 0.352503 -11.9629 -5.95501 3.37184 -2.32807 7.14593 3.44404 -1.20461 -1.52121 -1.32555 -4.65339 -1.29644 -6.1834 0.203933 -0.330407 -4.94153 -0.589652 7.92081 3.67219 -14.6076 3.64785 -7.29143 0.0182819 -0.769145 -2.31108 -1.81662 -1.06646 -5.9835 -5.76774 -0.946406 -0.284441 -1.00512 -0.179134 0.0532012 0.256591 -0.688539 0.0200923 -0.0573368 3.47477 2.08882 1.10606 -7.68906 -2.05521 -4.3054 -0.533748 -2.77929 4.6698 -5.03433 -5.33011 3.9283 -0.622896 -0.534897 4.06578 -1.81524 -0.138752 -6.11358 -0.487294 5.74193 -6.47752 0.359559 -4.3134 -1.20775 2.41091 -2.80682 -4.97311 -1.60075 -2.39737 -2.14291 -2.39118 -0.36512 1.57871 0.177488 
