0.0371713 34.3803 -0.0185148 37.7956 113.037 -25.6523 -17.6656 1.3431 6.35031 5.53012 -6.17746 -5.97847 -5.72104 4.98259 -6.21406 -6.46868 -5.57957 -5.4225 4.20012 3.52169 5.50284 4.55129 -1.1768 4.52773 -4.52226 5.27676 5.96318 3.95422 -0.729362 6.73647 -5.14552 
-2.89783 -21.0946 -92.2874 -16.2776 -36.9546 9.79948 7.96886 -44.0607 -13.2655 -14.1083 14.2324 15.1665 12.8656 -11.3095 19.0191 14.355 12.6306 11.2787 2.2731 -6.64604 -11.7494 -10.2384 -0.208513 -9.47766 9.75587 -10.0482 -14.3897 2.02328 -1.65686 -14.5794 10.9121 
-2.11155 -8.07939 5.54599 3.80562 -10.725 
0.0257442 10.6533 -0.131166 14.6061 25.1338 11.6142 6.96665 -1.43499 -8.49669 9.69657 -0.861932 -2.65314 5.2228 3.97498 18.7239 -6.209 -11.3827 -4.82416 -1.33524 5.97499 0.1876 -2.60399 -0.285106 -10.3581 -8.5749 2.83416 0.392277 -2.76432 -0.694202 0.29316 7.54946 -0.0772098 2.97865 -0.273666 5.74912 25.9674 0.379361 -28.1677 -4.17249 6.28897 -14.8716 -28.4652 26.2299 -9.79582 -8.26644 -2.75477 -18.1492 9.75775 3.4701 -7.26999 0.963801 -18.682 11.5425 -0.401596 1.89782 -7.63822 -16.063 -19.8551 -4.54033 -0.609247 -7.75621 -14.5465 0.0315625 3.28038 0.0786481 4.5129 -4.42135 -1.07935 10.2464 8.30536 5.88506 -1.57173 7.86587 -4.23451 -5.98389 -4.73355 27.3388 -3.09323 -18.6914 -1.06141 4.59974 3.03984 11.6311 -6.82582 0.781427 3.66368 0.727214 2.10789 8.4874 3.26511 0.786882 5.70425 8.3208 -0.121774 -9.19881 -0.0869782 1.37858 -7.95567 1.61661 -0.247284 -3.82296 0.867808 2.97409 13.2467 -11.6865 25.3035 20.4461 17.4243 20.8116 -9.69548 -19.6916 2.19106 4.24457 -2.32204 5.60334 0.419106 5.23126 -5.64401 -3.90951 -0.275581 1.36693 0.491373 9.15513 10.0838 0.120954 -3.44088 0.28361 -26.229 -0.131094 9.39556 2.95442 -17.53 -30.6979 22.4956 4.61599 -19.1676 -4.73937 -4.09547 -22.9856 15.4114 -3.01073 1.2944 -7.55309 -0.305618 -14.135 4.06112 -1.82615 8.27514 8.41602 -11.0659 23.8726 -7.83146 -2.0566 -34.788 -4.07524 
-8.96031 -5.76001 -9.57318 -1.58352 -1.15357 2.90435 -1.57568 
-3.21611 2.1961 3.64487 4.3255 5.23576 1.4702 -1.95472 2.20448 2.50953 -2.24127 3.26366 5.37784 2.24788 -2.39149 3.13562 -8.89955 6.29475 -3.80009 -2.61696 -3.23121 -1.10815 -6.02099 -3.867 -6.8055 5.24701 0.311581 -4.1209 -1.5321 -3.899 -6.20467 0.653341 1.19435 -2.08484 1.15156 -2.54562 
