-0.362725 49.8959 -0.955809 23.5863 -31.8235 24.8658 -18.7674 -0.235966 -5.14039 -4.23354 -4.80043 -1.33006 2.639 -3.12614 3.12483 1.33886 2.1367 -4.50141 1.69127 -4.90942 -3.25738 -3.14796 -2.92942 -4.58047 2.2395 -3.68101 3.17174 -2.58856 -2.44374 3.05062 3.78787
-36.4783 -30.1571 -304.718 -10.5957 11.338 -10.8522 9.5615 -23.8931 8.15457 2.63585 8.45872 -3.54257 -6.90463 6.21422 -5.90996 -6.42444 -7.84373 7.7597 3.04782 7.54624 7.03217 3.85651 -1.36635 6.87204 -6.95481 6.54357 -7.44002 -3.49004 -1.34661 -8.29362 -7.36967
-0.0306368 -2.02235 -6.3701 -4.40077 -6.88395 -2.75706 1.78649
0.0564046 -2.8657 -0.853294 -0.665061 -0.381412 0.0674886 0.281196 -4.14045 2.17644 -0.322431 3.93497 0.0261996 -0.151558 -0.00202052 3.12722 -3.51844 0.719248 -1.75284 1.42863 -4.10679 0.665569 0.082773 -0.303355 -4.57265 -1.29862 1.6192 -1.85259 -0.265629 0.0789204 -5.48655 -3.47976 0.289905 2.01999 -0.741674 0.183956 1.71867 1.16459 1.61975 1.51784 -1.28332 -0.0806091 1.14126 -0.0912609 -0.399135 -0.323524 -2.5721 -0.536667 0.694968 -0.757827 -1.86328 0.644688 0.333417 -0.067546 -0.749941 -2.32625 3.12203 -2.90029 1.796 -0.875837 -0.0471334 1.4012 -0.900808 0.174686 3.2155 -1.36694 2.22543 -0.740146 -1.45457 -0.0940163 1.15807 -0.814844 -0.205747 -4.01065 -1.14626 2.39595 2.12635 -3.03711 -0.2713 -3.89383 -1.39934 -4.68263 -2.27021 2.052 -1.67657 -0.495411 0.415318 1.11885 0.156713 2.39705 0.528699 -1.37796 2.18704 4.52651 0.120683 -0.644068 -0.438789 -2.77026 -0.00611936 1.1607 -4.6729 2.01571 -7.01878 -0.168686 -5.81372 -1.39882 1.04872 0.916425 -2.78056 0.756107 -4.74692 2.67321 -4.26337 1.33236 2.75761 -1.17263 -0.30051 -3.46862 -0.796896 0.830982 0.529905 -1.27998 -0.0852078 0.645502 4.81726 0.225712 -0.0504448 -1 -19.7555 8.83795 -1.63077 0.562164 -1.3188 7.27269 -7.59057 -7.69155 -3.30797 3.88681 2.90176 -1.97995 -2.15541 -7.55759 -1.04691 -6.65087 -0.462097 2.76324 -3.54959 -2.21124 -3.35306 -4.9325 -1.61745 -1.13777 -1.60379 -1.54443 -8.25117 -0.872974 0.148202 -0.381132 -1 0.512612 -0.591705 -0.190956 0.464649 0.0756785 1.09335 -0.281267 -0.439308 -0.2175 2.57818 2.30376 -0.423642 1.04842 -1.11468 5.34533 -0.662665 -7.3308 -2.83351 -0.238258 -0.482096 0.541602 -0.0140067 -1.46915 -1.01645 -0.757694 -0.375101 -1.05406 0.215992 0.0184834 -1.13467 0.211617 0.613006 -1.30054 0.580919 -1.07833 -2.18094 0.411489 -0.183479 -2.83471 -0.590649 -1.55707 -1.25773 -0.21807 0.26259 -1.61829 -2.71301 1.77333 -1.40046 2.90116 -0.0222461 -0.279791 0.291542 0.587161 0.0530171 -4.17904 0.325047 -0.309726 -2.89206 -1.99161
